digraph Tree {
node [shape=box] ;
0 [label="Income <= 0.444\ngini = 0.177\nsamples = 4000\nvalue = [3607, 393]"] ;
1 [label="CCAvg <= 0.522\ngini = 0.031\nsamples = 3092\nvalue = [3043, 49]"] ;
0 -> 1 [labeldistance=2.5, labelangle=45, headlabel="True"] ;
2 [label="gini = 0.0\nsamples = 2881\nvalue = [2881, 0]"] ;
1 -> 2 ;
3 [label="CD Account <= 7.278\ngini = 0.357\nsamples = 211\nvalue = [162, 49]"] ;
1 -> 3 ;
4 [label="Income <= 0.254\ngini = 0.286\nsamples = 191\nvalue = [158, 33]"] ;
3 -> 4 ;
5 [label="Experience <= -0.975\ngini = 0.157\nsamples = 140\nvalue = [128, 12]"] ;
4 -> 5 ;
6 [label="gini = 0.0\nsamples = 1\nvalue = [0, 1]"] ;
5 -> 6 ;
7 [label="gini = 0.146\nsamples = 139\nvalue = [128, 11]"] ;
5 -> 7 ;
8 [label="Education <= -0.203\ngini = 0.484\nsamples = 51\nvalue = [30, 21]"] ;
4 -> 8 ;
9 [label="gini = 0.165\nsamples = 22\nvalue = [20, 2]"] ;
8 -> 9 ;
10 [label="gini = 0.452\nsamples = 29\nvalue = [10, 19]"] ;
8 -> 10 ;
11 [label="Education <= 0.329\ngini = 0.32\nsamples = 20\nvalue = [4, 16]"] ;
3 -> 11 ;
12 [label="CCAvg <= 1.193\ngini = 0.124\nsamples = 15\nvalue = [1, 14]"] ;
11 -> 12 ;
13 [label="gini = 0.0\nsamples = 12\nvalue = [0, 12]"] ;
12 -> 13 ;
14 [label="gini = 0.444\nsamples = 3\nvalue = [1, 2]"] ;
12 -> 14 ;
15 [label="Experience <= 0.268\ngini = 0.48\nsamples = 5\nvalue = [3, 2]"] ;
11 -> 15 ;
16 [label="gini = 0.0\nsamples = 3\nvalue = [3, 0]"] ;
15 -> 16 ;
17 [label="gini = 0.0\nsamples = 2\nvalue = [0, 2]"] ;
15 -> 17 ;
18 [label="Education <= -0.203\ngini = 0.471\nsamples = 908\nvalue = [564, 344]"] ;
0 -> 18 [labeldistance=2.5, labelangle=-45, headlabel="False"] ;
19 [label="Family <= 0.043\ngini = 0.189\nsamples = 577\nvalue = [516, 61]"] ;
18 -> 19 ;
20 [label="gini = 0.0\nsamples = 506\nvalue = [506, 0]"] ;
19 -> 20 ;
21 [label="Income <= 0.538\ngini = 0.242\nsamples = 71\nvalue = [10, 61]"] ;
19 -> 21 ;
22 [label="Family <= 0.461\ngini = 0.444\nsamples = 15\nvalue = [10, 5]"] ;
21 -> 22 ;
23 [label="gini = 0.278\nsamples = 12\nvalue = [10, 2]"] ;
22 -> 23 ;
24 [label="gini = 0.0\nsamples = 3\nvalue = [0, 3]"] ;
22 -> 24 ;
25 [label="gini = 0.0\nsamples = 56\nvalue = [0, 56]"] ;
21 -> 25 ;
26 [label="Income <= 0.579\ngini = 0.248\nsamples = 331\nvalue = [48, 283]"] ;
18 -> 26 ;
27 [label="CCAvg <= 0.806\ngini = 0.47\nsamples = 77\nvalue = [48, 29]"] ;
26 -> 27 ;
28 [label="Experience <= 0.567\ngini = 0.371\nsamples = 61\nvalue = [46, 15]"] ;
27 -> 28 ;
29 [label="gini = 0.444\nsamples = 45\nvalue = [30, 15]"] ;
28 -> 29 ;
30 [label="gini = 0.0\nsamples = 16\nvalue = [16, 0]"] ;
28 -> 30 ;
31 [label="CCAvg <= 1.038\ngini = 0.219\nsamples = 16\nvalue = [2, 14]"] ;
27 -> 31 ;
32 [label="gini = 0.444\nsamples = 6\nvalue = [2, 4]"] ;
31 -> 32 ;
33 [label="gini = 0.0\nsamples = 10\nvalue = [0, 10]"] ;
31 -> 33 ;
34 [label="gini = 0.0\nsamples = 254\nvalue = [0, 254]"] ;
26 -> 34 ;
}